{3.000000,11.000000,9.000000,11.000000,42.689744,-4.925129,2.683695,-0.732025,0.594174,7.722543,9.893335,-1.545915,10.555778,2.878253,5.016590,-4.776792,-5.592062,55.447001,-7.430793,-4.973519,1.647004,5.149983,3.651909,7.079610,3.474823,2.477834,-2.620167,7.481508,-4.834300,-7.600662,22.534819,-17.631078,-14.651854,-0.966481,-4.552142,-9.052660,7.960354,-4.435809,-2.441721,0.427103,-7.649863,11.043073,8.242145,-0.917451,-15.639568,2.369268,-7.100641,3.310396,-0.924353,-5.070913,-9.975924,-3.004441,5.826416,5.827535,0.008943,0.798836,43.115670,-5.995259,-10.827143,-3.538015,1.573406,3.404820,1.629863,14.892055,-5.743216,-0.976269,9.979384,-7.697255,-4.107828,13.560622,-20.131427,-8.348898,-5.559880,-3.472879,-5.318787,-0.562494,-1.586370,3.316030,2.789695,3.480190,4.203899,8.166274,67.488669,-18.366028,-17.189057,8.325668,3.512145,-0.407155,-1.246810,9.920994,-14.468904,-3.356789,11.525077,9.413535,-6.153624,25.503586,-15.153546,-12.199172,0.506071,-9.559015,-9.936611,8.794907,-0.446624,0.481280,7.452519,-4.015473,6.848727,6.881228,22.993844,-14.768799,-11.615593,-2.001894,-8.185478,-10.848632,-0.133473,-5.544713,-2.861027,-2.382973,-9.957265,0.457960,4.931105,45.618615,-7.550606,0.419255,-2.886301,2.816955,-1.096374,4.335590,1.612336,0.311183,-0.476936,6.632837,2.257757,0.242514,48.975166,-7.818267,-4.518216,-8.544079,0.055544,-7.147759,6.829052,3.302326,-2.448039,-6.476252,0.450639,-5.228710,-3.150699,66.751789,-10.343100,-0.256802,-1.359878,-0.951402,-1.939464,-2.662418,-3.636753,-1.744705,0.529180,3.022652,-0.193400,-2.063297,67.335363,-11.570350,-3.207685,-7.237195,-3.066935,1.592535,-1.339740,-4.018548,-2.989025,1.553327,3.516225,-1.392387,-4.729765,67.902509,-9.448048,0.385804,-0.673577,1.145646,1.792051,0.692716,5.061337,2.902559,-1.894828,-2.159867,-1.648699,-2.398363,67.919741,-9.132549,1.668651,-2.751158,-0.078643,0.638813,4.743757,3.172687,-2.387512,0.472109,5.968069,5.083468,1.795646,42.689744,-4.925129,2.683695,-0.732025,0.594174,7.722543,9.893335,-1.545915,10.555778,2.878253,5.016590,-4.776792,-5.592062,55.447001,-7.430793,-4.973519,1.647004,5.149983,3.651909,7.079610,3.474823,2.477834,-2.620167,7.481508,-4.834300,-7.600662,66.073466,-19.880868,-14.280042,10.040868,-1.352957,2.237388,-10.376656,7.737990,-8.841165,-3.823595,10.264804,0.153443,-7.736230,62.054692,-20.614401,-22.851187,6.701931,-1.294597,-3.778756,3.603985,3.080378,-10.297696,-4.786425,-1.910272,10.928279,-2.490434,60.819901,-20.895820,-22.137303,7.082443,-4.261263,-5.067659,7.558490,4.596809,1.927718,-2.690210,-5.329047,12.208032,-5.947871,64.803191,-10.646012,-2.532170,-2.982933,-1.226292,-5.125975,-2.400175,-4.360283,-0.542071,0.097982,-1.713324,-1.246574,0.941051,66.096028,-9.758873,-0.847206,-4.837430,-3.174488,-3.547148,-3.468569,-0.494857,-3.121877,0.799978,3.832955,1.488897,1.211653,67.420820,-9.452408,-1.396706,-4.579541,-3.281516,-6.354301,-1.759008,-1.389491,0.410646,-1.989903,5.656356,5.050135,6.821326,67.747402,-9.359236,-0.245644,-5.258031,-2.151010,-5.437494,-1.243887,-3.210579,-6.129668,-6.200579,-4.417367,-0.293875,-0.179084,63.728699,7.539286,-6.039934,-13.848672,-10.029237,-18.930043,-9.978688,-12.798241,-9.613418,1.666786,16.614721,16.305436,10.547952,65.050082,4.017156,-9.981614,-6.882490,-8.939317,-24.984235,-7.958783,-10.095117,-14.674347,1.478802,19.640817,13.097217,12.513211,63.531186,3.228720,-13.973654,-9.717973,-5.196521,-19.564740,-6.694001,-12.013478,-21.338057,-11.229564,-6.858648,-6.395657,-1.717159,49.518004,-8.033527,-4.823153,-7.416937,2.418529,-3.250918,11.454176,8.288409,-1.221057,0.896879,8.449102,2.529640,-0.401885,50.032915,-6.855014,-3.004253,-7.069158,2.570885,-3.332695,7.219042,4.077256,-3.895713,-1.672933,2.191718,-2.272454,3.344783,50.233804,-4.831600,0.656911,-3.905536,4.975146,-4.746961,-0.990363,-5.102998,-6.176290,-7.486385,-0.813013,-2.919845,2.537899,49.568191,-4.413873,0.334336,-6.924561,2.239654,-6.513355,1.136508,5.099513,1.775807,2.172273,1.497122,-1.032719,3.224931,0.002282,0.012513,0.001473,0.001148,0.000529,0.001065,0.000984,0.000204,0.001716,0.017216,0.004699,0.000632,0.001567,0.003893,0.000611,0.000459,0.003996,0.001557,0.000079,0.000614,0.003028,0.002178,0.001370,0.000712,0.000738,0.000290,0.000888,0.000395,0.000256,0.001669,0.003054,1.224714,3.386436,5.306891}